34 64
1 -0.23348282 0.0031086507 -0.07174599 0.21461642 -0.19219473 0.056539454 -0.024162788 0.005046814 0.007991367 0.11566054 0.13502404 0.103468835 -0.112258434 -0.0012760068 -0.11438554 -0.047268417 -0.07468347 -0.32024008 -0.18729109 -0.07620908 0.016285492 0.04626037 -0.059669573 0.3216816 -0.25241047 0.37669033 0.16869465 -0.073741436 -0.15536088 -0.19579722 -0.022124397 0.2201245 -0.105872944 0.13403848 0.1870038 -0.1410032 -0.051660866 -0.038958177 -0.16556339 0.31401834 -0.12811564 0.05936728 -0.19373822 0.31769487 -0.08293773 -0.010053298 -0.18642306 -0.04435471 0.10042261 -0.2272623 -0.2065005 -0.08845241 -0.2250105 -0.1369304 -0.11520185 -0.08340134 -0.13788894 0.06881684 -0.08112235 0.31092444 -0.24414314 -0.007312436 0.20676178 -0.12944439
34 0.22356321 -0.19704463 0.16193074 -0.021849679 -0.25414523 -0.016962308 -0.03900007 -0.34643936 0.054145128 0.1899676 0.20742214 0.0136857685 -0.25378683 0.26670924 0.032585263 -0.35632384 0.25038776 -0.13430452 -0.0027096723 -0.054429386 0.058606826 0.30999136 0.06553994 0.033650227 -0.29532313 0.11100295 0.29346836 0.14352897 -0.34530488 0.061030082 0.10403649 -0.020542178 -0.0030495164 0.19329 0.14795376 0.060440354 -0.030119542 -0.13947819 -0.030407129 0.23081727 0.1795541 0.20433883 -0.018937495 0.11857572 -0.11066209 0.016075198 0.24548325 -0.101013996 0.13438849 -0.2160317 -0.07084115 0.0778221 -0.31428373 0.21886471 -0.04487005 -0.3199256 0.09053707 0.011781153 -0.23814906 0.05922235 0.090777956 0.029461736 -0.009252325 -0.22527969
33 0.2487776 -0.19276404 0.19620392 -0.0017720317 -0.22162959 -0.025438614 -0.019871585 -0.3575524 0.0016439981 0.2071229 0.2155398 0.02110008 -0.24121076 0.28866887 0.0298442 -0.36041233 0.1868648 -0.07615813 0.03546471 -0.11196934 -0.006580431 0.2782406 0.0826548 0.0330991 -0.32445312 0.090337396 0.30093238 0.22001763 -0.31960186 -0.008068522 0.09922685 -0.0025927534 0.03346371 0.22305082 0.21625917 0.07018335 0.0062624235 -0.14351302 -0.056401677 0.1801459 0.14666738 0.21687485 0.0055954466 0.057499506 -0.13820285 0.017522806 0.2472234 -0.11375024 0.11184518 -0.21067029 -0.11847091 0.04675913 -0.26968348 0.2700137 -0.05000029 -0.33384675 0.115702905 -0.0077895424 -0.24424672 0.035332453 0.15089707 0.034584705 -0.024714448 -0.16866952
3 -0.018112732 -0.096716225 0.0070996685 0.09212557 -0.2537007 0.10146377 -0.10772728 -0.044392165 0.13128386 0.09747424 0.12989306 0.0616651 -0.15014915 0.21131465 0.018710341 -0.18201463 0.15027693 -0.18680178 -0.08078377 -0.090783365 0.06763968 0.24571702 0.07711244 0.11717053 -0.19049217 0.26234323 0.31166595 0.13135189 -0.31658766 -0.056675576 0.11017914 0.115281045 -0.07750631 0.16847797 0.2115874 -0.0558219 -0.15017816 -0.11766871 -0.11813345 0.29713136 0.06797075 0.17871733 -0.102939665 0.24899386 0.039962426 0.08423839 -0.002086205 0.026907953 0.09593929 -0.22961155 -0.09814578 -0.03413429 -0.16224478 -0.010266067 -0.026757076 -0.28366122 0.031468604 0.054033946 -0.2837549 0.22255428 -0.096843034 0.080784366 0.030209394 -0.17110713
2 -0.15204705 -0.03347292 -0.118964985 0.17999072 -0.2332911 0.16703244 -0.1398965 0.11115875 0.14263575 0.069344215 0.102207154 0.10390351 -0.1174703 0.13614605 -0.027211873 -0.079793826 0.041584656 -0.24878894 -0.12359625 -0.12312167 0.037758954 0.17312013 0.063149005 0.21668804 -0.1697367 0.39901063 0.31909198 0.11891482 -0.28475335 -0.15669529 0.100833535 0.2333128 -0.097881675 0.15963133 0.26835603 -0.12571977 -0.21330905 -0.12551534 -0.1662066 0.36531442 -0.024603017 0.14473262 -0.16310304 0.35684884 0.12349659 0.12086852 -0.18246235 0.08285574 0.060434237 -0.25948206 -0.14718153 -0.13780224 -0.08728539 -0.13127841 -0.05417432 -0.24499111 -0.04124544 0.10449166 -0.3155395 0.35784236 -0.21589215 0.09078532 0.06474974 -0.119745515
4 -0.19210684 -0.04230233 -0.12695265 0.18934521 -0.25709027 0.18680862 -0.1622905 0.14501697 0.16231064 0.04352942 0.11680477 0.10342026 -0.10286693 0.15398082 -0.002163286 -0.06622423 0.057776403 -0.2683246 -0.14614038 -0.11023191 0.080258325 0.19217177 0.0788786 0.2156976 -0.14036112 0.4068002 0.32959113 0.12054396 -0.29210776 -0.15303256 0.10552928 0.22835267 -0.13936214 0.14236902 0.25466678 -0.17365986 -0.24276501 -0.10645808 -0.19012396 0.36782256 -0.022052204 0.16414843 -0.18934731 0.3722237 0.13999452 0.12764618 -0.1944346 0.10378397 0.079050295 -0.26549664 -0.12210062 -0.13528846 -0.06813293 -0.1734505 -0.04039098 -0.25011873 -0.041135013 0.10521066 -0.32776475 0.37555873 -0.26619583 0.09066027 0.08632449 -0.14394833
32 0.034195784 -0.12913035 0.15584634 -0.0842613 -0.18489152 -0.0108922385 0.16945212 -0.35907534 0.011551766 0.2970785 0.083461285 -0.03431049 -0.36663166 0.008404617 0.05679536 -0.28531963 0.2616515 -0.37043592 -0.11502896 0.12131214 0.1254465 0.28734723 -0.09451189 0.21976453 -0.2477342 0.07362323 0.1627435 -0.12840211 -0.25971985 0.17709555 0.08581287 -0.0069575813 -0.14204587 0.04308984 0.007917811 0.08297262 0.01064576 0.04480523 0.14852121 0.2115457 0.11502878 -0.027191928 -0.053678073 0.1401312 -0.106635936 0.021070862 0.28355178 -0.14005592 0.21827023 -0.11894114 0.04405163 0.21836358 -0.44475922 -0.011206036 -0.24856032 -0.23404203 0.057638954 0.0571628 -0.008415249 0.15069349 -0.084531695 0.018555885 0.10985641 -0.14725028
14 -0.09549208 -0.03778755 -0.010777095 0.13982183 -0.21302164 0.07961919 -0.05311049 -0.044420365 0.05613654 0.1158438 0.13999711 0.07226689 -0.15259719 0.13968423 -0.03672236 -0.13990633 0.044265144 -0.22833465 -0.10292609 -0.09622038 0.026260138 0.17921971 0.018936547 0.19619785 -0.21568221 0.29493123 0.266859 0.07423416 -0.2538788 -0.13259423 0.06993447 0.14669728 -0.07687724 0.15625748 0.24041502 -0.0832979 -0.08654473 -0.091951534 -0.12868163 0.2726568 -0.011564506 0.14289507 -0.13017438 0.26183605 -0.017887158 0.06427753 -0.060527448 0.0058471523 0.1004706 -0.20881897 -0.16115732 -0.07123669 -0.18071409 -0.045403223 -0.056755338 -0.23306568 -0.031256955 0.055976514 -0.19248632 0.27122724 -0.13753553 0.055175193 0.08882328 -0.14801565
24 0.20219818 -0.19735685 0.20647354 -0.1333976 -0.21426614 -0.008860915 0.10018156 -0.4357812 0.037621077 0.29205194 0.1432201 -0.0529044 -0.39322707 0.13519709 0.09637413 -0.39135355 0.3469935 -0.24815685 -0.02058785 0.08820665 0.10212542 0.39297315 -0.0017980572 0.10146539 -0.23564261 0.026150785 0.25683802 0.03209673 -0.35731462 0.2303328 0.14392753 -0.056971293 -0.09317566 0.08125226 0.03987422 0.12846757 -0.028302466 -0.050676394 0.14804718 0.21098429 0.23332784 0.061958622 0.009312077 0.09225056 -0.06699424 0.060336415 0.38717616 -0.13000484 0.20306687 -0.13504423 0.08294429 0.21502851 -0.41007116 0.13008751 -0.19443555 -0.3532005 0.15193437 0.028521722 -0.15866308 0.097563796 0.03981021 0.062030643 0.00015214579 -0.18374124
9 0.09674847 -0.12961906 0.11115144 0.029311912 -0.22366056 0.01064552 -0.015119238 -0.26269418 0.018582761 0.16757882 0.18275982 0.044237938 -0.22102487 0.19105975 -0.0064904797 -0.27353555 0.14887626 -0.16149646 -0.04294484 -0.06329888 0.025909351 0.24314533 0.030052429 0.10168378 -0.27401793 0.17425904 0.25848058 0.09029101 -0.28189546 -0.0103155915 0.07471604 0.0330105 -0.016528592 0.17777191 0.16662902 0.01544605 -0.01637158 -0.1225566 -0.059760872 0.2295826 0.08703664 0.15392466 -0.043728687 0.15203887 -0.108359024 0.011753519 0.13818444 -0.09715021 0.10996447 -0.2005768 -0.09869738 0.030137286 -0.2755054 0.1355375 -0.067665674 -0.26263693 0.03641 0.0136902025 -0.18191296 0.12111352 0.017470134 0.03101757 0.039581664 -0.17195305
8 -0.13543472 -0.040074136 -0.07234831 0.17442985 -0.27233958 0.15480635 -0.15235956 0.07176322 0.13994215 0.044004265 0.13815068 0.09995404 -0.1066587 0.18640482 -0.016940527 -0.118312985 0.05854001 -0.24211274 -0.10830627 -0.12353332 0.05746577 0.21940446 0.075427994 0.18722154 -0.15701236 0.37784204 0.33057177 0.12264809 -0.3021676 -0.15595967 0.102671236 0.19049369 -0.1023471 0.16538465 0.2775641 -0.15311569 -0.19130598 -0.1162647 -0.18902358 0.35101983 0.004911323 0.19652961 -0.14741273 0.35397598 0.08482259 0.09420336 -0.14784674 0.07367563 0.07341157 -0.26198223 -0.1398867 -0.121217415 -0.099365704 -0.11603765 -0.003470827 -0.25674573 -0.03554704 0.092800684 -0.3072016 0.32611054 -0.20213422 0.07840476 0.06653333 -0.17053898
28 0.07524511 -0.13397272 0.13603282 -0.09853244 -0.22219096 0.033308372 0.0918621 -0.28918687 0.07325264 0.24837367 0.07272698 -0.040242083 -0.34320444 0.07008916 0.07261446 -0.30130067 0.2991011 -0.33433634 -0.091750346 0.10877073 0.14180824 0.34294653 -0.05127755 0.16240568 -0.18401708 0.08760045 0.21904762 -0.06428133 -0.3115336 0.19294913 0.13923876 0.011487435 -0.13464853 0.049177602 0.011059365 0.0549297 -0.076053716 0.032601014 0.13855729 0.25767183 0.16212544 0.029155385 -0.052228738 0.18036379 -0.035278406 0.065634795 0.2662568 -0.09023992 0.19089532 -0.14125459 0.09187153 0.17840229 -0.38338593 -0.0094630085 -0.19135855 -0.27473488 0.092948094 0.087758005 -0.112712435 0.14798023 -0.0983229 0.046532765 0.056536328 -0.17284511
6 -0.4221184 0.044814758 -0.015007931 0.35780737 -0.15753976 -0.09937438 0.13374309 -0.10666397 -0.1788636 0.27455452 0.19830823 0.12919514 -0.15860634 -0.13679367 -0.2868195 -0.0033481529 -0.33190262 -0.48906475 -0.29783338 -0.17057765 -0.08552327 -0.18906274 -0.22003551 0.5644497 -0.5121337 0.45811126 0.05436251 -0.22086816 -0.005020636 -0.4316781 -0.14597714 0.36480585 -0.09313352 0.24036568 0.2378158 -0.17164838 0.16752167 0.07981246 -0.23203355 0.30708846 -0.357678 -0.022035357 -0.3297552 0.30122906 -0.37332976 -0.1455058 -0.27640304 -0.20999536 0.15532908 -0.27656767 -0.4395249 -0.10782802 -0.42441732 -0.13784955 -0.24720323 0.06049201 -0.25454256 0.028469983 0.15998128 0.35389087 -0.2854916 -0.13572878 0.42191043 -0.08665101
7 -0.32439226 0.030333212 0.067265004 0.31203398 -0.15532315 -0.154354 0.1933655 -0.22491713 -0.2078641 0.30083442 0.21478282 0.076272614 -0.1889248 -0.1064244 -0.2687915 -0.07172135 -0.2749626 -0.4528363 -0.27165985 -0.15028256 -0.095842734 -0.15126882 -0.22034846 0.52083814 -0.5307112 0.37500143 0.0419014 -0.23287788 -0.0007781256 -0.3734354 -0.1490213 0.29355824 -0.078247175 0.22957447 0.21281888 -0.09374932 0.23424114 0.05732504 -0.17117682 0.25203285 -0.31242496 -0.010781946 -0.27628702 0.22916296 -0.4364028 -0.16535361 -0.15050592 -0.25356376 0.19687867 -0.2386832 -0.43536133 -0.053857777 -0.47903574 -0.06095 -0.23423284 0.05315827 -0.2207297 -0.011601204 0.20444451 0.29609054 -0.2093074 -0.13208306 0.39589825 -0.11629107
31 0.12560196 -0.12900743 0.08594503 0.030398723 -0.23351486 0.04071026 -0.053631708 -0.20566872 0.07288001 0.14045998 0.15691808 0.031219503 -0.22038852 0.22824284 0.023839341 -0.2685781 0.19723608 -0.1452398 -0.015665704 -0.05658156 0.044966534 0.28119498 0.0619464 0.07645743 -0.24686106 0.17200372 0.30266896 0.1444702 -0.3145081 -0.0043006074 0.11167347 0.049779832 -0.033939578 0.16141225 0.17994389 0.026428694 -0.075757094 -0.12832364 -0.052359097 0.24384631 0.13050829 0.18012396 -0.051672336 0.16125067 -0.03237076 0.066150114 0.12055302 -0.05029436 0.10481378 -0.20611577 -0.08643389 0.018686831 -0.23149277 0.12612723 -0.043731034 -0.3034221 0.055298965 0.04122602 -0.25071642 0.13916683 0.024735712 0.050605685 -0.012101198 -0.16840468
30 0.3040526 -0.2322462 0.20618404 -0.11999809 -0.2292281 -0.012449525 0.018135639 -0.46257517 0.031596694 0.2713365 0.17920375 -0.027593762 -0.3575032 0.21955548 0.077059746 -0.42941573 0.34559283 -0.16557166 0.009285524 0.04392625 0.07100652 0.37273774 0.01786047 0.040494908 -0.3041585 0.046811108 0.2901363 0.10187037 -0.3919654 0.18605995 0.12462498 -0.050492246 -0.029361712 0.14806764 0.064360715 0.12889862 -0.02362527 -0.11483812 0.09697933 0.21630208 0.26312834 0.14671086 0.017248932 0.07068252 -0.10438542 0.054360222 0.38626453 -0.13276674 0.15501791 -0.18219815 0.032471288 0.17368838 -0.41228205 0.2479187 -0.13938539 -0.36028647 0.14195572 0.013122561 -0.20904939 0.04370425 0.11306411 0.034416877 -0.03814101 -0.23194157
25 0.07121405 -0.15708147 0.17134716 -0.18346329 -0.20450795 0.016269157 0.21163973 -0.40469685 0.03876703 0.32843414 0.052463226 -0.0697465 -0.45427552 -0.012451918 0.111623056 -0.34285474 0.38883507 -0.42472625 -0.121678285 0.22832969 0.19702 0.39094362 -0.10158308 0.21772964 -0.18614113 0.030797116 0.16413893 -0.15881476 -0.31522036 0.33535933 0.14695852 -0.044515647 -0.19653296 -0.027388934 -0.08331349 0.12446208 -0.04495408 0.083700724 0.25629672 0.24437869 0.20028062 -0.08870306 -0.020550976 0.1588828 -0.047780927 0.05381429 0.38280165 -0.15506932 0.24745259 -0.108543105 0.1759386 0.2994409 -0.49333867 -0.03162737 -0.30150947 -0.27488855 0.11039386 0.08548467 -0.019715667 0.14960545 -0.11074292 0.027488392 0.090169385 -0.15301159
29 0.055307794 -0.121561415 0.08820703 -0.001138121 -0.20747843 0.039516747 0.00797001 -0.22344705 0.048583053 0.1876918 0.14467925 0.024441022 -0.25961706 0.15520827 0.03311082 -0.25032574 0.21019405 -0.23609823 -0.05710541 -0.010241794 0.0867176 0.28085622 0.03249055 0.12647186 -0.20852584 0.15876889 0.2575044 0.06391531 -0.29552737 0.06765158 0.1128209 0.046749175 -0.07919665 0.113278195 0.11550577 0.0018947332 -0.06991376 -0.07705758 -0.0044104825 0.21596834 0.11279653 0.10357554 -0.060498897 0.18069282 -0.030295717 0.05378499 0.14931165 -0.04449849 0.13306397 -0.1787895 -0.019078476 0.080761544 -0.2652449 0.028036067 -0.105272405 -0.28501263 0.06711013 0.04177962 -0.19017129 0.17482583 -0.06362303 0.06092588 0.05037139 -0.16830224
5 -0.3572549 0.052503753 -0.014666964 0.3445121 -0.16647816 -0.06355383 0.09162548 -0.07180007 -0.14571324 0.21685015 0.1999255 0.11711996 -0.12754522 -0.07554393 -0.23720679 -0.009123222 -0.28406635 -0.41609 -0.25943488 -0.17130718 -0.08307684 -0.1282606 -0.15592395 0.49755564 -0.45470208 0.44376284 0.0898558 -0.16391371 -0.044816688 -0.41318882 -0.13858034 0.3278083 -0.08411567 0.22866781 0.27571458 -0.16598001 0.14259052 0.0057723084 -0.25280184 0.2869844 -0.30871364 0.02405361 -0.2794212 0.30428088 -0.3258366 -0.11666881 -0.24682418 -0.16587391 0.15866679 -0.25383756 -0.42216313 -0.13355802 -0.3673969 -0.11802675 -0.18497124 0.009373827 -0.22915386 0.017528476 0.098653026 0.34489948 -0.26205838 -0.090370975 0.36969993 -0.11202995
11 -0.34682494 0.0565851 0.025849648 0.38464338 -0.17257045 -0.11806508 0.10275531 -0.109316535 -0.1795515 0.22602697 0.21634185 0.1098072 -0.11953052 -0.06307078 -0.25489008 -0.025891054 -0.33303878 -0.38401186 -0.2516661 -0.22511579 -0.1325783 -0.16157292 -0.16371316 0.5071145 -0.5016975 0.4245658 0.100553945 -0.13692613 -0.016356112 -0.4712999 -0.14962149 0.3351014 -0.06791853 0.2631722 0.31292588 -0.13898984 0.17783247 0.006796068 -0.267879 0.26777595 -0.34081385 0.05868223 -0.28785512 0.2523812 -0.38177884 -0.1369222 -0.2482538 -0.19619231 0.16460685 -0.2501787 -0.49322063 -0.1378629 -0.38427177 -0.08159615 -0.18027005 0.022189543 -0.23045899 -0.01838841 0.11663732 0.34114847 -0.20748691 -0.10610539 0.377975 -0.10113718
26 0.107834905 -0.16610299 0.21155718 -0.21494074 -0.22335304 0.0143210385 0.21380514 -0.45028722 0.05782455 0.35751075 0.044481214 -0.07509531 -0.48753196 -0.01291495 0.13943559 -0.38224712 0.42886657 -0.44346955 -0.11949935 0.22871718 0.20425527 0.43523362 -0.10419233 0.18986247 -0.18682525 0.013001982 0.18347956 -0.17484134 -0.3544197 0.37715104 0.17102931 -0.06179167 -0.21459417 -0.016362483 -0.09703473 0.122740716 -0.05998081 0.1089967 0.28763282 0.25825843 0.24238557 -0.063791975 -0.0127853 0.14370921 -0.055730708 0.068004005 0.42518765 -0.15277748 0.25897092 -0.100122884 0.21974906 0.33408648 -0.5352705 -0.042498115 -0.31255913 -0.30709067 0.14676706 0.099345304 -0.026729245 0.13066673 -0.116264254 0.05185752 0.086620376 -0.18234654
20 -0.08227815 -0.05848483 -0.013383538 0.14014171 -0.21942115 0.065355144 -0.074516125 -0.058451686 0.06505031 0.112028286 0.15187804 0.06858141 -0.1513927 0.119116515 -0.030325893 -0.14460683 0.043483723 -0.24878296 -0.09926517 -0.092221804 0.024797171 0.16337197 0.018651364 0.20052473 -0.21151868 0.29336965 0.25071594 0.06495877 -0.2407057 -0.130095 0.06723874 0.16380629 -0.07563031 0.16200732 0.2128908 -0.10048542 -0.09660658 -0.07300378 -0.13462257 0.28357533 -0.0047596856 0.14649889 -0.13925758 0.27106133 -0.024379147 0.0467486 -0.076904334 -0.015994007 0.08929051 -0.22026215 -0.13931653 -0.06573136 -0.18628465 -0.040238727 -0.07388471 -0.20571268 -0.03785555 0.06286087 -0.1942651 0.2572583 -0.1380024 0.028505018 0.1037256 -0.15031208
13 -0.17779931 -0.023887819 -0.07508485 0.17277549 -0.24738444 0.13680726 -0.103154615 0.059720248 0.12049154 0.07625376 0.11895606 0.09985852 -0.12662068 0.11238078 -0.019089416 -0.10180763 0.03733255 -0.28734422 -0.1458081 -0.0787861 0.06593536 0.18833505 0.033605836 0.23180382 -0.16406706 0.37507734 0.28214186 0.05683766 -0.28266197 -0.14798585 0.071711384 0.19597828 -0.1272343 0.13701604 0.2511982 -0.14414072 -0.1661397 -0.08519018 -0.17151023 0.34729543 -0.028155304 0.14038303 -0.17397454 0.34854653 0.062269762 0.07758649 -0.14975035 0.05658651 0.101017766 -0.25042918 -0.13700135 -0.10151501 -0.15065159 -0.14253256 -0.05992783 -0.23208827 -0.057924792 0.10057823 -0.24229163 0.3410448 -0.23330058 0.06602008 0.11538471 -0.14500567
18 -0.2166461 -0.0032727807 -0.06654552 0.2217905 -0.23548855 0.09207699 -0.06353098 0.04547414 0.064560816 0.10708131 0.13096122 0.09252294 -0.12212605 0.069511294 -0.056318816 -0.06997997 -0.03950654 -0.32044947 -0.1650193 -0.10563758 0.025183573 0.12588361 -0.0052396706 0.29753947 -0.21672574 0.3904551 0.25422406 0.023603683 -0.2156983 -0.21154103 0.052180525 0.24393946 -0.118323036 0.16359176 0.26695964 -0.14362296 -0.12508747 -0.050892454 -0.17969589 0.349103 -0.08918236 0.124582075 -0.18547842 0.33748803 -0.005236452 0.04603285 -0.18803732 -0.00076670386 0.10241541 -0.24588631 -0.19645679 -0.10329199 -0.17152491 -0.14824189 -0.08876761 -0.18118207 -0.090557925 0.07994269 -0.1858176 0.35167417 -0.22413346 0.03828401 0.15477715 -0.12069739
22 -0.20221771 -0.021180212 -0.073117584 0.1987943 -0.23327693 0.08978092 -0.077189095 0.03338003 0.0720441 0.10210792 0.113406144 0.097085156 -0.13253227 0.06916064 -0.05441704 -0.07240265 -0.017768191 -0.31741968 -0.15627576 -0.08212967 0.037943784 0.11480328 -0.024129307 0.2720359 -0.21773717 0.3719942 0.23125133 0.004627255 -0.20386603 -0.19035603 0.057876106 0.23079248 -0.10757296 0.1551439 0.21517837 -0.13707861 -0.12110539 -0.029320685 -0.15822835 0.34463543 -0.0712235 0.11680946 -0.19571392 0.3321544 -0.006138117 0.04137558 -0.17340805 -0.0075756786 0.084279776 -0.24618483 -0.17321035 -0.08638501 -0.17491393 -0.1463101 -0.09002716 -0.15368916 -0.07750744 0.0977746 -0.17012121 0.31558815 -0.21910009 0.009283181 0.14155616 -0.1186682
17 -0.3834419 0.04302515 0.073687926 0.42314327 -0.14306891 -0.21096858 0.19583015 -0.2292468 -0.29100218 0.3216598 0.26415515 0.11122323 -0.13138293 -0.09912753 -0.35672566 -0.050600413 -0.4399464 -0.43116373 -0.28804648 -0.2742382 -0.17367166 -0.26881862 -0.2260368 0.5914165 -0.64710325 0.44129416 0.02227124 -0.1926347 0.05204892 -0.5534253 -0.22234842 0.36884585 -0.01657357 0.3211472 0.32421994 -0.11881609 0.32918033 0.04257022 -0.28425914 0.23578027 -0.43878466 0.010490915 -0.31777188 0.20710564 -0.54471135 -0.22293836 -0.23207936 -0.29339954 0.17690393 -0.27570572 -0.6121134 -0.13504189 -0.49212366 -0.0036626759 -0.22971296 0.10227606 -0.267637 -0.052836634 0.24733965 0.30915463 -0.16851027 -0.16911578 0.45115158 -0.094654515
23 0.23274149 -0.18701197 0.15705 -0.055969045 -0.20669144 0.005144708 0.0035997396 -0.37870657 0.028483145 0.22743252 0.16050515 -0.00026682747 -0.2943283 0.21722803 0.046085052 -0.35876152 0.26802045 -0.14081122 0.0048743 0.006184491 0.04752861 0.32690114 0.017570062 0.06591558 -0.29899657 0.09334414 0.27535656 0.09372095 -0.34347603 0.11567539 0.10393446 -0.015307641 -0.021683173 0.1607749 0.11533933 0.11355693 -0.024308626 -0.12142701 0.04729441 0.21950509 0.19195642 0.12724535 0.010650891 0.07794947 -0.10074005 0.05315991 0.28432506 -0.13340099 0.1271144 -0.17988265 -0.03454621 0.10929247 -0.353228 0.21465148 -0.11135304 -0.32104227 0.09621282 0.014184315 -0.19579415 0.06924937 0.10713847 0.0275071 -0.016810423 -0.19231188
10 0.1120636 -0.14335307 0.06686929 0.010711108 -0.25812435 0.074569315 -0.08319359 -0.18301775 0.1047558 0.1345973 0.16700162 0.03711365 -0.22560157 0.25044897 0.04116284 -0.27684462 0.23096286 -0.1532979 -0.017008806 -0.053564172 0.08222309 0.32603228 0.08351149 0.061720032 -0.19204412 0.19536547 0.33832106 0.1687243 -0.36230996 0.031606477 0.14480887 0.047290422 -0.04187194 0.14126973 0.17467237 -0.007593323 -0.13024236 -0.14616492 -0.064230286 0.27314928 0.15705848 0.19413067 -0.050862793 0.20241964 0.030268824 0.096222706 0.122714534 -0.008181393 0.09640125 -0.21596059 -0.029346107 0.013520651 -0.20159404 0.09581885 -0.030691065 -0.33060223 0.071867175 0.059714176 -0.3073823 0.1665153 -0.021640074 0.07300123 -0.02124543 -0.19541377
15 0.22353847 -0.18074569 0.19283515 -0.03415367 -0.19504914 -0.05374099 0.041615825 -0.42513224 -0.038243696 0.25675395 0.19917382 -0.013120526 -0.28988162 0.21874054 0.013050306 -0.35882217 0.2107844 -0.13297124 0.009203995 -0.05054814 0.0130626615 0.27035838 0.020689134 0.0725886 -0.34942055 0.073058404 0.24610113 0.08817013 -0.294465 0.058944505 0.06795731 -0.010959428 0.0036106948 0.17818838 0.14430581 0.11540327 0.057175204 -0.119039744 0.022509953 0.15743554 0.1464982 0.13501415 -0.0030436174 0.036992453 -0.18047944 0.015765889 0.29663506 -0.16329949 0.14636175 -0.1596765 -0.10008318 0.10664991 -0.35628343 0.24882875 -0.10097915 -0.29477558 0.08981735 -0.021399342 -0.13690464 0.05208891 0.13099054 0.01715073 0.012909774 -0.19229619
19 0.23197499 -0.17459825 0.16266915 -0.038115457 -0.21144171 -0.0073136366 0.0044381116 -0.39102256 0.015213972 0.22300875 0.18858287 0.013266082 -0.2974575 0.23506302 0.02760169 -0.35756883 0.2564306 -0.14453529 0.015849927 -0.021362886 0.038039465 0.3253104 0.023159135 0.05862592 -0.31625205 0.107630946 0.28285784 0.091819175 -0.34022325 0.08120354 0.09220019 -0.02502671 0.004781454 0.17197442 0.1273227 0.10463619 0.007739674 -0.14557154 0.0099598775 0.20773709 0.18585522 0.16084068 -0.00025905482 0.08486982 -0.13281673 0.030261748 0.27827945 -0.12941726 0.13988145 -0.18919139 -0.06292291 0.106499545 -0.35337514 0.23079835 -0.08450902 -0.32898977 0.08801221 -0.0053075585 -0.19979385 0.072064765 0.1031962 0.031198356 0.0010934509 -0.22087404
16 0.32103726 -0.21570633 0.22242576 -0.060641646 -0.21099608 -0.05437379 0.008805249 -0.4553712 -0.004644965 0.24470721 0.2063761 -0.012025755 -0.3038586 0.28698814 0.033879057 -0.4092101 0.27767876 -0.07515233 0.04780761 -0.050276298 0.010393168 0.32726988 0.041995317 0.012401347 -0.3542203 0.042542253 0.28864306 0.15193252 -0.3445652 0.08176678 0.09984543 -0.055943657 0.03317005 0.20870908 0.14097622 0.14898413 0.041125793 -0.16146877 0.021892464 0.16517124 0.21586308 0.18623947 0.034198895 0.015751606 -0.17350508 0.02914761 0.35069045 -0.15922149 0.13332847 -0.17798202 -0.07552074 0.111993544 -0.37090397 0.32037494 -0.0789567 -0.35599732 0.13542175 -0.02168872 -0.20330803 -0.002460921 0.20317535 0.017662046 -0.04802913 -0.2138974
21 0.24545884 -0.18770608 0.16561143 -0.0063432762 -0.20883557 -0.032397646 -0.028129188 -0.35283157 0.00796864 0.21682127 0.19823 0.0028115576 -0.24947324 0.25789118 0.008499572 -0.33843708 0.20566677 -0.0912753 0.014293309 -0.07621023 0.0060446784 0.2861609 0.053370904 0.034191765 -0.33285648 0.1078539 0.2995204 0.15839565 -0.3298348 0.024667792 0.08687828 0.005849411 0.031661335 0.20602405 0.16666348 0.088974856 -0.00013083009 -0.16571781 -0.03214077 0.20021106 0.16294304 0.18006188 -0.0041820887 0.07062898 -0.12965664 0.029601105 0.25432563 -0.12485158 0.12257622 -0.18759222 -0.1025708 0.060014803 -0.304462 0.25822333 -0.07208808 -0.32754606 0.10376162 -0.015306373 -0.22686392 0.05297831 0.1461649 0.032202125 -0.030137233 -0.19372351
27 0.28947967 -0.19635391 0.17596643 -0.04963938 -0.23402616 -0.013917595 -0.039209202 -0.40178436 0.03798601 0.21340452 0.21494831 -0.019271694 -0.2896549 0.27429503 0.03716602 -0.38703662 0.27443537 -0.10910153 0.037931666 -0.051473957 0.027618097 0.34120268 0.064569585 0.0040166434 -0.291313 0.07461044 0.30457944 0.15719317 -0.3773609 0.09030649 0.112204134 -0.020324618 0.0041612484 0.18880938 0.137653 0.091032 -0.021824459 -0.1652311 0.016957786 0.1942763 0.221079 0.2103285 0.015451377 0.08516913 -0.11183019 0.050170727 0.3172664 -0.10005676 0.13105832 -0.18610239 -0.052378837 0.085637696 -0.32373247 0.2576534 -0.06583812 -0.36794704 0.13513662 -0.015302547 -0.25662208 0.055333328 0.13352434 0.047452528 -0.038167406 -0.23594104
12 -0.24801958 0.02044584 -0.06460914 0.23671886 -0.19478662 0.060365383 -0.016050871 0.033233065 0.009231143 0.11546322 0.13311014 0.09699558 -0.110226735 0.02127523 -0.09807322 -0.033302 -0.095470965 -0.31417793 -0.19331977 -0.113270104 -0.0014034611 0.042993285 -0.037174035 0.32199332 -0.25698322 0.3883521 0.19858226 -0.03647033 -0.16373163 -0.251257 -0.009877799 0.24739712 -0.11620496 0.16025165 0.25405246 -0.14960124 -0.048499323 -0.04182534 -0.19415231 0.29876742 -0.15098158 0.09352898 -0.20827854 0.31532422 -0.080389485 0.0061301226 -0.1979732 -0.0154867135 0.120481946 -0.23046352 -0.2472625 -0.11600929 -0.21281528 -0.15738255 -0.10057568 -0.111308716 -0.11789815 0.05917644 -0.10714033 0.32745835 -0.25261652 0.014813513 0.21125202 -0.11016828
